<?xml version="1.0"?>
<opencv_storage>
<cascade>
  <stageType>BOOST</stageType>
  <featureType>HAAR</featureType>
  <height>24</height>
  <width>36</width>
  <stageParams>
    <boostType>GAB</boostType>
    <minHitRate>9.9500000476837158e-01</minHitRate>
    <maxFalseAlarm>5.0000000000000000e-01</maxFalseAlarm>
    <weightTrimRate>9.4999998807907104e-01</weightTrimRate>
    <maxDepth>1</maxDepth>
    <maxWeakCount>100</maxWeakCount></stageParams>
  <featureParams>
    <maxCatCount>0</maxCatCount>
    <featSize>1</featSize>
    <mode>BASIC</mode></featureParams>
  <stageNum>6</stageNum>
  <stages>
    <!-- stage 0 -->
    <_>
      <maxWeakCount>3</maxWeakCount>
      <stageThreshold>-1.3272267580032349e+00</stageThreshold>
      <weakClassifiers>
        <_>
          <internalNodes>
            0 -1 8 2.7780240774154663e-01</internalNodes>
          <leafValues>
            -9.8613035678863525e-01 7.5700932741165161e-01</leafValues></_>
        <_>
          <internalNodes>
            0 -1 13 -3.7180695682764053e-02</internalNodes>
          <leafValues>
            7.7181273698806763e-01 -9.6345669031143188e-01</leafValues></_>
        <_>
          <internalNodes>
            0 -1 1 -5.9769809246063232e-02</internalNodes>
          <leafValues>
            6.2236028909683228e-01 -1.</leafValues></_></weakClassifiers></_>
    <!-- stage 1 -->
    <_>
      <maxWeakCount>2</maxWeakCount>
      <stageThreshold>-1.9262936711311340e-01</stageThreshold>
      <weakClassifiers>
        <_>
          <internalNodes>
            0 -1 7 2.6407694444060326e-02</internalNodes>
          <leafValues>
            -9.5646256208419800e-01 7.8494626283645630e-01</leafValues></_>
        <_>
          <internalNodes>
            0 -1 12 -7.6468149200081825e-03</internalNodes>
          <leafValues>
            7.6383322477340698e-01 -9.4766634702682495e-01</leafValues></_></weakClassifiers></_>
    <!-- stage 2 -->
    <_>
      <maxWeakCount>3</maxWeakCount>
      <stageThreshold>-9.7994321584701538e-01</stageThreshold>
      <weakClassifiers>
        <_>
          <internalNodes>
            0 -1 9 3.5782724618911743e-01</internalNodes>
          <leafValues>
            -9.5392954349517822e-01 8.2222223281860352e-01</leafValues></_>
        <_>
          <internalNodes>
            0 -1 10 1.2531241402029991e-02</internalNodes>
          <leafValues>
            -9.0391623973846436e-01 9.3167537450790405e-01</leafValues></_>
        <_>
          <internalNodes>
            0 -1 2 -1.4368703588843346e-02</internalNodes>
          <leafValues>
            8.7790256738662720e-01 -8.8867914676666260e-01</leafValues></_></weakClassifiers></_>
    <!-- stage 3 -->
    <_>
      <maxWeakCount>3</maxWeakCount>
      <stageThreshold>-1.1997952461242676e+00</stageThreshold>
      <weakClassifiers>
        <_>
          <internalNodes>
            0 -1 14 -3.8097131997346878e-02</internalNodes>
          <leafValues>
            7.2631579637527466e-01 -9.5361530780792236e-01</leafValues></_>
        <_>
          <internalNodes>
            0 -1 6 2.1700315177440643e-02</internalNodes>
          <leafValues>
            -9.0628266334533691e-01 6.6751718521118164e-01</leafValues></_>
        <_>
          <internalNodes>
            0 -1 0 2.3469584062695503e-02</internalNodes>
          <leafValues>
            -9.8856240510940552e-01 6.6010266542434692e-01</leafValues></_></weakClassifiers></_>
    <!-- stage 4 -->
    <_>
      <maxWeakCount>3</maxWeakCount>
      <stageThreshold>-1.2522501945495605e+00</stageThreshold>
      <weakClassifiers>
        <_>
          <internalNodes>
            0 -1 16 -2.3212961852550507e-02</internalNodes>
          <leafValues>
            5.3684210777282715e-01 -9.2905867099761963e-01</leafValues></_>
        <_>
          <internalNodes>
            0 -1 4 2.2652831673622131e-01</internalNodes>
          <leafValues>
            -9.1628891229629517e-01 6.1898976564407349e-01</leafValues></_>
        <_>
          <internalNodes>
            0 -1 11 -4.3851792812347412e-02</internalNodes>
          <leafValues>
            5.9309738874435425e-01 -1.</leafValues></_></weakClassifiers></_>
    <!-- stage 5 -->
    <_>
      <maxWeakCount>3</maxWeakCount>
      <stageThreshold>-1.3735922574996948e+00</stageThreshold>
      <weakClassifiers>
        <_>
          <internalNodes>
            0 -1 3 3.1484097242355347e-01</internalNodes>
          <leafValues>
            -9.6368712186813354e-01 5.3571426868438721e-01</leafValues></_>
        <_>
          <internalNodes>
            0 -1 15 1.7013102769851685e-02</internalNodes>
          <leafValues>
            -8.8110250234603882e-01 5.1485931873321533e-01</leafValues></_>
        <_>
          <internalNodes>
            0 -1 5 4.5268163084983826e-02</internalNodes>
          <leafValues>
            -9.2476445436477661e-01 5.5836284160614014e-01</leafValues></_></weakClassifiers></_></stages>
  <features>
    <_>
      <rects>
        <_>
          0 7 15 11 -1.</_>
        <_>
          5 7 5 11 3.</_></rects>
      <tilted>0</tilted></_>
    <_>
      <rects>
        <_>
          0 8 18 16 -1.</_>
        <_>
          0 8 9 8 2.</_>
        <_>
          9 16 9 8 2.</_></rects>
      <tilted>0</tilted></_>
    <_>
      <rects>
        <_>
          9 13 22 2 -1.</_>
        <_>
          9 13 11 1 2.</_>
        <_>
          20 14 11 1 2.</_></rects>
      <tilted>0</tilted></_>
    <_>
      <rects>
        <_>
          10 1 22 16 -1.</_>
        <_>
          10 9 22 8 2.</_></rects>
      <tilted>0</tilted></_>
    <_>
      <rects>
        <_>
          10 2 17 14 -1.</_>
        <_>
          10 9 17 7 2.</_></rects>
      <tilted>0</tilted></_>
    <_>
      <rects>
        <_>
          11 0 2 24 -1.</_>
        <_>
          11 8 2 8 3.</_></rects>
      <tilted>0</tilted></_>
    <_>
      <rects>
        <_>
          12 13 9 3 -1.</_>
        <_>
          12 14 9 1 3.</_></rects>
      <tilted>0</tilted></_>
    <_>
      <rects>
        <_>
          16 8 7 4 -1.</_>
        <_>
          16 10 7 2 2.</_></rects>
      <tilted>0</tilted></_>
    <_>
      <rects>
        <_>
          17 0 10 24 -1.</_>
        <_>
          17 8 10 8 3.</_></rects>
      <tilted>0</tilted></_>
    <_>
      <rects>
        <_>
          17 1 15 21 -1.</_>
        <_>
          17 8 15 7 3.</_></rects>
      <tilted>0</tilted></_>
    <_>
      <rects>
        <_>
          17 10 6 3 -1.</_>
        <_>
          17 11 6 1 3.</_></rects>
      <tilted>0</tilted></_>
    <_>
      <rects>
        <_>
          20 0 16 11 -1.</_>
        <_>
          28 0 8 11 2.</_></rects>
      <tilted>0</tilted></_>
    <_>
      <rects>
        <_>
          24 9 4 7 -1.</_>
        <_>
          26 9 2 7 2.</_></rects>
      <tilted>0</tilted></_>
    <_>
      <rects>
        <_>
          28 9 8 8 -1.</_>
        <_>
          32 9 4 8 2.</_></rects>
      <tilted>0</tilted></_>
    <_>
      <rects>
        <_>
          30 5 6 12 -1.</_>
        <_>
          33 5 3 12 2.</_></rects>
      <tilted>0</tilted></_>
    <_>
      <rects>
        <_>
          31 0 1 16 -1.</_>
        <_>
          31 8 1 8 2.</_></rects>
      <tilted>0</tilted></_>
    <_>
      <rects>
        <_>
          31 8 4 10 -1.</_>
        <_>
          33 8 2 10 2.</_></rects>
      <tilted>0</tilted></_></features></cascade>
</opencv_storage>
